<?xml version="1.0"?>
<opencv_storage>
<stage9>
  <maxWeakCount>10</maxWeakCount>
  <stageThreshold>-1.1786339282989502e+00</stageThreshold>
  <weakClassifiers>
    <_>
      <internalNodes>
        0 -1 8037 1.3272589421831071e-04</internalNodes>
      <leafValues>
        4.8122867941856384e-01 -4.7126436233520508e-01</leafValues></_>
    <_>
      <internalNodes>
        0 -1 7724918 8.9850509539246559e-05</internalNodes>
      <leafValues>
        -2.4098300933837891e-01 7.2481071949005127e-01</leafValues></_>
    <_>
      <internalNodes>
        0 -1 4781299 -4.8076696693897247e-03</internalNodes>
      <leafValues>
        6.2392789125442505e-01 -2.9025262594223022e-01</leafValues></_>
    <_>
      <internalNodes>
        0 -1 7002413 4.2673310963436961e-04</internalNodes>
      <leafValues>
        -2.6759994029998779e-01 6.1553591489791870e-01</leafValues></_>
    <_>
      <internalNodes>
        0 -1 7659743 -4.0031512617133558e-04</internalNodes>
      <leafValues>
        5.6425076723098755e-01 -2.8402543067932129e-01</leafValues></_>
    <_>
      <internalNodes>
        0 -1 7760709 -6.0516875237226486e-05</internalNodes>
      <leafValues>
        7.5081646442413330e-01 -2.0925442874431610e-01</leafValues></_>
    <_>
      <internalNodes>
        0 -1 6025848 -4.7149178571999073e-03</internalNodes>
      <leafValues>
        4.5662456750869751e-01 -3.4439328312873840e-01</leafValues></_>
    <_>
      <internalNodes>
        0 -1 7765742 5.2549825340975076e-05</internalNodes>
      <leafValues>
        -2.2496481239795685e-01 6.3208872079849243e-01</leafValues></_>
    <_>
      <internalNodes>
        0 -1 5465319 2.3330956082645571e-06</internalNodes>
      <leafValues>
        -3.9369028806686401e-01 4.0646412968635559e-01</leafValues></_>
    <_>
      <internalNodes>
        0 -1 6422688 -1.1686662037391216e-04</internalNodes>
      <leafValues>
        6.4829951524734497e-01 -2.5297495722770691e-01</leafValues></_></weakClassifiers></stage9>
</opencv_storage>
