<?xml version="1.0"?>
<opencv_storage>
<stage10>
  <maxWeakCount>11</maxWeakCount>
  <stageThreshold>-5.8571225404739380e-01</stageThreshold>
  <weakClassifiers>
    <_>
      <internalNodes>
        0 -1 896424 2.7548037469387054e-03</internalNodes>
      <leafValues>
        7.8597122430801392e-01 -7.9411762952804565e-01</leafValues></_>
    <_>
      <internalNodes>
        0 -1 725394 1.9875501748174429e-03</internalNodes>
      <leafValues>
        4.4315156340599060e-01 -8.3920228481292725e-01</leafValues></_>
    <_>
      <internalNodes>
        0 -1 655605 -1.2944087386131287e-02</internalNodes>
      <leafValues>
        3.9069426059722900e-01 -4.9906313419342041e-01</leafValues></_>
    <_>
      <internalNodes>
        0 -1 159174 -5.0759175792336464e-04</internalNodes>
      <leafValues>
        5.1735764741897583e-01 -3.2650259137153625e-01</leafValues></_>
    <_>
      <internalNodes>
        0 -1 1075032 1.2100348249077797e-02</internalNodes>
      <leafValues>
        -2.3857507109642029e-01 6.8733119964599609e-01</leafValues></_>
    <_>
      <internalNodes>
        0 -1 952557 -3.5226120962761343e-04</internalNodes>
      <leafValues>
        -4.6575152873992920e-01 3.3792954683303833e-01</leafValues></_>
    <_>
      <internalNodes>
        0 -1 856638 1.9065981177845970e-05</internalNodes>
      <leafValues>
        -3.4062981605529785e-01 4.3513479828834534e-01</leafValues></_>
    <_>
      <internalNodes>
        0 -1 647210 -1.5940612647682428e-03</internalNodes>
      <leafValues>
        -7.2281879186630249e-01 1.7160715162754059e-01</leafValues></_>
    <_>
      <internalNodes>
        0 -1 227660 4.8391855671070516e-05</internalNodes>
      <leafValues>
        -2.4741360545158386e-01 5.6045913696289062e-01</leafValues></_>
    <_>
      <internalNodes>
        0 -1 223383 -9.3998078955337405e-04</internalNodes>
      <leafValues>
        8.9903438091278076e-01 -1.4684978127479553e-01</leafValues></_>
    <_>
      <internalNodes>
        0 -1 681508 8.8963098824024200e-03</internalNodes>
      <leafValues>
        1.9291017949581146e-01 -8.7446564435958862e-01</leafValues></_></weakClassifiers></stage10>
</opencv_storage>
