<?xml version="1.0"?>
<opencv_storage>
<stage5>
  <maxWeakCount>11</maxWeakCount>
  <stageThreshold>-8.8754290342330933e-01</stageThreshold>
  <weakClassifiers>
    <_>
      <internalNodes>
        0 -1 5160383 4.3257116340100765e-04</internalNodes>
      <leafValues>
        4.0212014317512512e-01 -9.1351354122161865e-01</leafValues></_>
    <_>
      <internalNodes>
        0 -1 4889501 -9.5536233857274055e-04</internalNodes>
      <leafValues>
        6.6309094429016113e-01 -2.8435841202735901e-01</leafValues></_>
    <_>
      <internalNodes>
        0 -1 4775893 -9.9978111684322357e-03</internalNodes>
      <leafValues>
        8.2575237751007080e-01 -1.7429740726947784e-01</leafValues></_>
    <_>
      <internalNodes>
        0 -1 5026624 4.5081798452883959e-04</internalNodes>
      <leafValues>
        -2.6368489861488342e-01 7.0145732164382935e-01</leafValues></_>
    <_>
      <internalNodes>
        0 -1 3189644 -4.5947958715260029e-03</internalNodes>
      <leafValues>
        6.1817818880081177e-01 -2.7886855602264404e-01</leafValues></_>
    <_>
      <internalNodes>
        0 -1 3696986 -1.9036913272429956e-06</internalNodes>
      <leafValues>
        5.0421589612960815e-01 -3.5887822508811951e-01</leafValues></_>
    <_>
      <internalNodes>
        0 -1 4713918 1.1088175233453512e-03</internalNodes>
      <leafValues>
        2.0581814646720886e-01 -8.3106130361557007e-01</leafValues></_>
    <_>
      <internalNodes>
        0 -1 5840848 -9.5649366267025471e-04</internalNodes>
      <leafValues>
        7.9859691858291626e-01 -2.3218691349029541e-01</leafValues></_>
    <_>
      <internalNodes>
        0 -1 5472390 8.2471422501839697e-05</internalNodes>
      <leafValues>
        2.8826510906219482e-01 -7.3424291610717773e-01</leafValues></_>
    <_>
      <internalNodes>
        0 -1 4890180 1.1279758065938950e-02</internalNodes>
      <leafValues>
        -2.6815536618232727e-01 8.4241056442260742e-01</leafValues></_>
    <_>
      <internalNodes>
        0 -1 5366173 -1.2107178918085992e-04</internalNodes>
      <leafValues>
        -9.1803032159805298e-01 2.5046870112419128e-01</leafValues></_></weakClassifiers></stage5>
</opencv_storage>
