<?xml version="1.0"?>
<opencv_storage>
<stage13>
  <maxWeakCount>10</maxWeakCount>
  <stageThreshold>-1.3273251056671143e+00</stageThreshold>
  <weakClassifiers>
    <_>
      <internalNodes>
        0 -1 4816106 7.0156063884496689e-03</internalNodes>
      <leafValues>
        5.1962321996688843e-01 -8.0368095636367798e-01</leafValues></_>
    <_>
      <internalNodes>
        0 -1 4256691 2.2404656192520633e-06</internalNodes>
      <leafValues>
        -3.7259587645530701e-01 5.2792310714721680e-01</leafValues></_>
    <_>
      <internalNodes>
        0 -1 7487627 -8.3961815107613802e-04</internalNodes>
      <leafValues>
        6.1442625522613525e-01 -4.0143686532974243e-01</leafValues></_>
    <_>
      <internalNodes>
        0 -1 7747324 -1.0882704518735409e-03</internalNodes>
      <leafValues>
        7.7583640813827515e-01 -2.9126679897308350e-01</leafValues></_>
    <_>
      <internalNodes>
        0 -1 2331388 -4.9187749391421676e-04</internalNodes>
      <leafValues>
        -5.9943282604217529e-01 4.3150636553764343e-01</leafValues></_>
    <_>
      <internalNodes>
        0 -1 7688785 2.4142100301105529e-04</internalNodes>
      <leafValues>
        -4.3481779098510742e-01 4.7259882092475891e-01</leafValues></_>
    <_>
      <internalNodes>
        0 -1 7522718 -1.5459686983376741e-04</internalNodes>
      <leafValues>
        6.4801442623138428e-01 -2.9696318507194519e-01</leafValues></_>
    <_>
      <internalNodes>
        0 -1 6653959 1.7215232946909964e-04</internalNodes>
      <leafValues>
        -2.2745837271213531e-01 7.2913300991058350e-01</leafValues></_>
    <_>
      <internalNodes>
        0 -1 7654092 8.9427536295261234e-05</internalNodes>
      <leafValues>
        -3.6994457244873047e-01 5.6378847360610962e-01</leafValues></_>
    <_>
      <internalNodes>
        0 -1 4809739 2.4273449089378119e-03</internalNodes>
      <leafValues>
        2.3955133557319641e-01 -8.2019644975662231e-01</leafValues></_></weakClassifiers></stage13>
</opencv_storage>
