<?xml version="1.0"?>
<opencv_storage>
<stage3>
  <maxWeakCount>11</maxWeakCount>
  <stageThreshold>-7.2425150871276855e-01</stageThreshold>
  <weakClassifiers>
    <_>
      <internalNodes>
        0 -1 958447 -4.5770150609314442e-03</internalNodes>
      <leafValues>
        -6.9620251655578613e-01 7.9473203420639038e-01</leafValues></_>
    <_>
      <internalNodes>
        0 -1 441633 1.1470904428279027e-04</internalNodes>
      <leafValues>
        -6.6366046667098999e-01 5.5637282133102417e-01</leafValues></_>
    <_>
      <internalNodes>
        0 -1 192718 -7.1988189592957497e-03</internalNodes>
      <leafValues>
        6.3951504230499268e-01 -3.6650753021240234e-01</leafValues></_>
    <_>
      <internalNodes>
        0 -1 737001 -1.7968025058507919e-03</internalNodes>
      <leafValues>
        -6.8630391359329224e-01 3.0736184120178223e-01</leafValues></_>
    <_>
      <internalNodes>
        0 -1 584807 1.0314925930288155e-05</internalNodes>
      <leafValues>
        -4.1722217202186584e-01 5.0283461809158325e-01</leafValues></_>
    <_>
      <internalNodes>
        0 -1 4718 -7.4081504344940186e-01</internalNodes>
      <leafValues>
        8.1886714696884155e-01 -2.4991010129451752e-01</leafValues></_>
    <_>
      <internalNodes>
        0 -1 1080376 -2.4119675799738616e-04</internalNodes>
      <leafValues>
        7.0280289649963379e-01 -2.5731495022773743e-01</leafValues></_>
    <_>
      <internalNodes>
        0 -1 844653 2.6531249750405550e-03</internalNodes>
      <leafValues>
        3.5611146688461304e-01 -5.6107574701309204e-01</leafValues></_>
    <_>
      <internalNodes>
        0 -1 95211 -1.3137704133987427e-01</internalNodes>
      <leafValues>
        -8.6757302284240723e-01 2.2767746448516846e-01</leafValues></_>
    <_>
      <internalNodes>
        0 -1 956598 -5.2558081224560738e-03</internalNodes>
      <leafValues>
        -7.9827851057052612e-01 1.9352573156356812e-01</leafValues></_>
    <_>
      <internalNodes>
        0 -1 150084 -3.9751292206346989e-04</internalNodes>
      <leafValues>
        7.1607249975204468e-01 -2.7992290258407593e-01</leafValues></_></weakClassifiers></stage3>
</opencv_storage>
