<?xml version="1.0"?>
<opencv_storage>
<stage8>
  <maxWeakCount>13</maxWeakCount>
  <stageThreshold>-1.0416481494903564e+00</stageThreshold>
  <weakClassifiers>
    <_>
      <internalNodes>
        0 -1 6377526 2.8925863443873823e-04</internalNodes>
      <leafValues>
        6.2805527448654175e-01 -2.8983306884765625e-01</leafValues></_>
    <_>
      <internalNodes>
        0 -1 7127173 3.4822162706404924e-04</internalNodes>
      <leafValues>
        -2.9899659752845764e-01 6.2230932712554932e-01</leafValues></_>
    <_>
      <internalNodes>
        0 -1 1887826 1.1046533472836018e-03</internalNodes>
      <leafValues>
        -3.6768421530723572e-01 5.3486704826354980e-01</leafValues></_>
    <_>
      <internalNodes>
        0 -1 6659632 2.6350270491093397e-04</internalNodes>
      <leafValues>
        -2.7761465311050415e-01 8.1192022562026978e-01</leafValues></_>
    <_>
      <internalNodes>
        0 -1 4386421 6.2162798712961376e-05</internalNodes>
      <leafValues>
        3.4988558292388916e-01 -5.5487859249114990e-01</leafValues></_>
    <_>
      <internalNodes>
        0 -1 7067034 8.7746680947020650e-05</internalNodes>
      <leafValues>
        -1.9688250124454498e-01 8.8305866718292236e-01</leafValues></_>
    <_>
      <internalNodes>
        0 -1 5760797 3.3418042585253716e-04</internalNodes>
      <leafValues>
        3.2879763841629028e-01 -6.4107155799865723e-01</leafValues></_>
    <_>
      <internalNodes>
        0 -1 1940730 -1.5092104673385620e-02</internalNodes>
      <leafValues>
        8.0473583936691284e-01 -2.8152996301651001e-01</leafValues></_>
    <_>
      <internalNodes>
        0 -1 2405017 1.1130324564874172e-03</internalNodes>
      <leafValues>
        -1.7641130089759827e-01 8.6038911342620850e-01</leafValues></_>
    <_>
      <internalNodes>
        0 -1 5704958 6.7733344621956348e-05</internalNodes>
      <leafValues>
        -1.7361555993556976e-01 7.9634821414947510e-01</leafValues></_>
    <_>
      <internalNodes>
        0 -1 6332690 1.8438979168422520e-04</internalNodes>
      <leafValues>
        -2.5523763895034790e-01 7.2801315784454346e-01</leafValues></_>
    <_>
      <internalNodes>
        0 -1 1111838 3.6842811823589727e-05</internalNodes>
      <leafValues>
        3.7644988298416138e-01 -5.4479217529296875e-01</leafValues></_>
    <_>
      <internalNodes>
        0 -1 7527791 2.5498245577182388e-06</internalNodes>
      <leafValues>
        -5.9850436449050903e-01 2.8834220767021179e-01</leafValues></_></weakClassifiers></stage8>
</opencv_storage>
