<?xml version="1.0"?>
<opencv_storage>
<stage6>
  <maxWeakCount>13</maxWeakCount>
  <stageThreshold>-5.5428326129913330e-01</stageThreshold>
  <weakClassifiers>
    <_>
      <internalNodes>
        0 -1 814341 6.6434089094400406e-03</internalNodes>
      <leafValues>
        7.5109553337097168e-01 -9.4871795177459717e-01</leafValues></_>
    <_>
      <internalNodes>
        0 -1 888291 -8.9424299076199532e-03</internalNodes>
      <leafValues>
        6.2596333026885986e-01 -3.1125035881996155e-01</leafValues></_>
    <_>
      <internalNodes>
        0 -1 435203 -5.7654874399304390e-03</internalNodes>
      <leafValues>
        4.4465732574462891e-01 -4.7093597054481506e-01</leafValues></_>
    <_>
      <internalNodes>
        0 -1 28138 1.4012342691421509e-01</internalNodes>
      <leafValues>
        1.6610956192016602e-01 -8.4844070672988892e-01</leafValues></_>
    <_>
      <internalNodes>
        0 -1 808657 1.5158192254602909e-03</internalNodes>
      <leafValues>
        2.0085540413856506e-01 -7.7759498357772827e-01</leafValues></_>
    <_>
      <internalNodes>
        0 -1 425825 1.7752751009538770e-03</internalNodes>
      <leafValues>
        -2.5561660528182983e-01 6.1230736970901489e-01</leafValues></_>
    <_>
      <internalNodes>
        0 -1 1021502 2.4384134449064732e-03</internalNodes>
      <leafValues>
        -4.6606767177581787e-01 2.9960241913795471e-01</leafValues></_>
    <_>
      <internalNodes>
        0 -1 517725 7.1419129380956292e-04</internalNodes>
      <leafValues>
        -2.5315475463867188e-01 5.7054215669631958e-01</leafValues></_>
    <_>
      <internalNodes>
        0 -1 630771 3.1654717167839408e-04</internalNodes>
      <leafValues>
        3.3313298225402832e-01 -4.4688573479652405e-01</leafValues></_>
    <_>
      <internalNodes>
        0 -1 500096 2.6333662681281567e-03</internalNodes>
      <leafValues>
        2.1324189007282257e-01 -7.8640049695968628e-01</leafValues></_>
    <_>
      <internalNodes>
        0 -1 756602 3.5905593540519476e-04</internalNodes>
      <leafValues>
        -3.1836605072021484e-01 5.2306634187698364e-01</leafValues></_>
    <_>
      <internalNodes>
        0 -1 1111020 1.3453703140839934e-03</internalNodes>
      <leafValues>
        -1.9930882751941681e-01 6.4627379179000854e-01</leafValues></_>
    <_>
      <internalNodes>
        0 -1 884709 -5.7504517026245594e-03</internalNodes>
      <leafValues>
        -8.0888545513153076e-01 1.8770007789134979e-01</leafValues></_></weakClassifiers></stage6>
</opencv_storage>
