<?xml version="1.0"?>
<opencv_storage>
<stage18>
  <maxWeakCount>7</maxWeakCount>
  <stageThreshold>-1.2049453258514404e+00</stageThreshold>
  <weakClassifiers>
    <_>
      <internalNodes>
        0 -1 6294228 1.9476030021905899e-02</internalNodes>
      <leafValues>
        5.4231977462768555e-01 -9.0123456716537476e-01</leafValues></_>
    <_>
      <internalNodes>
        0 -1 5958904 -1.0304986062692478e-05</internalNodes>
      <leafValues>
        6.2300813198089600e-01 -4.4552740454673767e-01</leafValues></_>
    <_>
      <internalNodes>
        0 -1 2491613 1.4644040675193537e-05</internalNodes>
      <leafValues>
        -3.3247905969619751e-01 6.2368941307067871e-01</leafValues></_>
    <_>
      <internalNodes>
        0 -1 7080498 5.8780256949830800e-05</internalNodes>
      <leafValues>
        -2.3184281587600708e-01 8.2534742355346680e-01</leafValues></_>
    <_>
      <internalNodes>
        0 -1 2483041 7.2235881816595793e-04</internalNodes>
      <leafValues>
        -4.3086537718772888e-01 4.7727796435356140e-01</leafValues></_>
    <_>
      <internalNodes>
        0 -1 5465152 2.3411594156641513e-06</internalNodes>
      <leafValues>
        -4.2694112658500671e-01 5.7807838916778564e-01</leafValues></_>
    <_>
      <internalNodes>
        0 -1 7716878 3.0270061688497663e-04</internalNodes>
      <leafValues>
        -3.0036684870719910e-01 8.8843405246734619e-01</leafValues></_></weakClassifiers></stage18>
</opencv_storage>
