<?xml version="1.0"?>
<opencv_storage>
<stage8>
  <maxWeakCount>16</maxWeakCount>
  <stageThreshold>-6.8715107440948486e-01</stageThreshold>
  <weakClassifiers>
    <_>
      <internalNodes>
        0 -1 728761 6.0404017567634583e-03</internalNodes>
      <leafValues>
        7.5682818889617920e-01 -8.6666667461395264e-01</leafValues></_>
    <_>
      <internalNodes>
        0 -1 154353 -6.9012697786092758e-03</internalNodes>
      <leafValues>
        5.2293598651885986e-01 -3.6010777950286865e-01</leafValues></_>
    <_>
      <internalNodes>
        0 -1 1106253 3.5054292529821396e-03</internalNodes>
      <leafValues>
        -1.7762716114521027e-01 7.9920226335525513e-01</leafValues></_>
    <_>
      <internalNodes>
        0 -1 1008208 -1.1502737179398537e-03</internalNodes>
      <leafValues>
        4.4065558910369873e-01 -3.1110370159149170e-01</leafValues></_>
    <_>
      <internalNodes>
        0 -1 957376 -4.1658608242869377e-03</internalNodes>
      <leafValues>
        -7.4678230285644531e-01 1.8780057132244110e-01</leafValues></_>
    <_>
      <internalNodes>
        0 -1 1094498 -2.7484723250381649e-04</internalNodes>
      <leafValues>
        7.2241890430450439e-01 -2.3792506754398346e-01</leafValues></_>
    <_>
      <internalNodes>
        0 -1 755546 -7.8517920337617397e-04</internalNodes>
      <leafValues>
        5.7575523853302002e-01 -2.1077643334865570e-01</leafValues></_>
    <_>
      <internalNodes>
        0 -1 1039594 1.1957462411373854e-03</internalNodes>
      <leafValues>
        -3.2225498557090759e-01 4.0010440349578857e-01</leafValues></_>
    <_>
      <internalNodes>
        0 -1 559522 1.0208923777099699e-04</internalNodes>
      <leafValues>
        -2.3606386780738831e-01 6.0814249515533447e-01</leafValues></_>
    <_>
      <internalNodes>
        0 -1 684131 2.8899910830659792e-05</internalNodes>
      <leafValues>
        -2.3709814250469208e-01 5.8814603090286255e-01</leafValues></_>
    <_>
      <internalNodes>
        0 -1 681195 8.1542806583456695e-05</internalNodes>
      <leafValues>
        2.8390219807624817e-01 -5.3770035505294800e-01</leafValues></_>
    <_>
      <internalNodes>
        0 -1 203854 -3.5380445420742035e-02</internalNodes>
      <leafValues>
        5.8992964029312134e-01 -2.5674664974212646e-01</leafValues></_>
    <_>
      <internalNodes>
        0 -1 99116 -2.7712062001228333e-02</internalNodes>
      <leafValues>
        -5.9207361936569214e-01 2.5791189074516296e-01</leafValues></_>
    <_>
      <internalNodes>
        0 -1 758526 1.0011392441811040e-04</internalNodes>
      <leafValues>
        -2.7401921153068542e-01 5.8910256624221802e-01</leafValues></_>
    <_>
      <internalNodes>
        0 -1 253235 -6.6609159111976624e-02</internalNodes>
      <leafValues>
        -7.4338394403457642e-01 2.2651903331279755e-01</leafValues></_>
    <_>
      <internalNodes>
        0 -1 575790 4.1998187080025673e-03</internalNodes>
      <leafValues>
        -4.9639725685119629e-01 3.1398656964302063e-01</leafValues></_></weakClassifiers></stage8>
</opencv_storage>
