<?xml version="1.0"?>
<opencv_storage>
<stage10>
  <maxWeakCount>23</maxWeakCount>
  <stageThreshold>-1.2632890939712524e+00</stageThreshold>
  <weakClassifiers>
    <_>
      <internalNodes>
        0 -1 3967708 -1.4337504282593727e-02</internalNodes>
      <leafValues>
        -7.1590906381607056e-01 3.6938202381134033e-01</leafValues></_>
    <_>
      <internalNodes>
        0 -1 93155 -1.9015797879546881e-03</internalNodes>
      <leafValues>
        7.1733230352401733e-01 -1.2855881452560425e-01</leafValues></_>
    <_>
      <internalNodes>
        0 -1 160927 7.9601879406254739e-05</internalNodes>
      <leafValues>
        1.8316587805747986e-01 -5.9520536661148071e-01</leafValues></_>
    <_>
      <internalNodes>
        0 -1 7738416 2.3099449754226953e-04</internalNodes>
      <leafValues>
        -1.3023240864276886e-01 8.0457836389541626e-01</leafValues></_>
    <_>
      <internalNodes>
        0 -1 5874098 -4.7359695599880069e-05</internalNodes>
      <leafValues>
        -5.9041810035705566e-01 1.7932350933551788e-01</leafValues></_>
    <_>
      <internalNodes>
        0 -1 7597430 -4.1192479431629181e-02</internalNodes>
      <leafValues>
        3.7550935149192810e-01 -2.8249052166938782e-01</leafValues></_>
    <_>
      <internalNodes>
        0 -1 5218554 -9.2555390438064933e-04</internalNodes>
      <leafValues>
        6.2628495693206787e-01 -1.3205684721469879e-01</leafValues></_>
    <_>
      <internalNodes>
        0 -1 5478549 2.0055620097991778e-06</internalNodes>
      <leafValues>
        -2.9825672507286072e-01 3.2828995585441589e-01</leafValues></_>
    <_>
      <internalNodes>
        0 -1 4672234 1.1955485679209232e-03</internalNodes>
      <leafValues>
        -4.4285747408866882e-01 2.1790228784084320e-01</leafValues></_>
    <_>
      <internalNodes>
        0 -1 4898531 -1.9165058620274067e-03</internalNodes>
      <leafValues>
        6.7091554403305054e-01 -1.6749362647533417e-01</leafValues></_>
    <_>
      <internalNodes>
        0 -1 6326022 -5.5131014960352331e-05</internalNodes>
      <leafValues>
        -6.5765345096588135e-01 1.7149510979652405e-01</leafValues></_>
    <_>
      <internalNodes>
        0 -1 5802809 -1.3562765670940280e-03</internalNodes>
      <leafValues>
        5.1919233798980713e-01 -1.9881865382194519e-01</leafValues></_>
    <_>
      <internalNodes>
        0 -1 5831207 -3.5002180375158787e-03</internalNodes>
      <leafValues>
        4.5957517623901367e-01 -1.9218164682388306e-01</leafValues></_>
    <_>
      <internalNodes>
        0 -1 962980 -1.6978738131001592e-04</internalNodes>
      <leafValues>
        -3.9954185485839844e-01 2.2586721181869507e-01</leafValues></_>
    <_>
      <internalNodes>
        0 -1 23296 4.2617762119334657e-06</internalNodes>
      <leafValues>
        -2.4228514730930328e-01 3.6895513534545898e-01</leafValues></_>
    <_>
      <internalNodes>
        0 -1 5853561 -8.1951264292001724e-03</internalNodes>
      <leafValues>
        -9.2377698421478271e-01 1.0555613785982132e-01</leafValues></_>
    <_>
      <internalNodes>
        0 -1 5194049 -1.9213386112824082e-03</internalNodes>
      <leafValues>
        5.6157183647155762e-01 -1.8786166608333588e-01</leafValues></_>
    <_>
      <internalNodes>
        0 -1 5329267 4.9201498040929437e-04</internalNodes>
      <leafValues>
        -2.1538360416889191e-01 4.8850348591804504e-01</leafValues></_>
    <_>
      <internalNodes>
        0 -1 4702304 -1.8872565124183893e-03</internalNodes>
      <leafValues>
        -6.8709498643875122e-01 1.5724785625934601e-01</leafValues></_>
    <_>
      <internalNodes>
        0 -1 38000 5.2456127014011145e-04</internalNodes>
      <leafValues>
        -1.8329994380474091e-01 5.7187145948410034e-01</leafValues></_>
    <_>
      <internalNodes>
        0 -1 7637760 4.2510060593485832e-03</internalNodes>
      <leafValues>
        -1.1198998242616653e-01 6.9130080938339233e-01</leafValues></_>
    <_>
      <internalNodes>
        0 -1 3110259 -1.1403019540011883e-02</internalNodes>
      <leafValues>
        -4.7608962655067444e-01 2.0348271727561951e-01</leafValues></_>
    <_>
      <internalNodes>
        0 -1 3644211 3.4758560359477997e-02</internalNodes>
      <leafValues>
        1.3997822999954224e-01 -7.0020377635955811e-01</leafValues></_></weakClassifiers></stage10>
</opencv_storage>
