<?xml version="1.0"?>
<opencv_storage>
<stage8>
  <maxWeakCount>12</maxWeakCount>
  <stageThreshold>-1.1602189540863037e+00</stageThreshold>
  <weakClassifiers>
    <_>
      <internalNodes>
        0 -1 2687972 -4.9201870569959283e-04</internalNodes>
      <leafValues>
        -4.8953974246978760e-01 5.6506240367889404e-01</leafValues></_>
    <_>
      <internalNodes>
        0 -1 6493764 -3.5640754504129291e-04</internalNodes>
      <leafValues>
        6.8748986721038818e-01 -2.4046511948108673e-01</leafValues></_>
    <_>
      <internalNodes>
        0 -1 5465152 2.3411594156641513e-06</internalNodes>
      <leafValues>
        -3.9728650450706482e-01 4.4946524500846863e-01</leafValues></_>
    <_>
      <internalNodes>
        0 -1 7437778 1.5092889952939004e-04</internalNodes>
      <leafValues>
        -2.8618711233139038e-01 7.0041537284851074e-01</leafValues></_>
    <_>
      <internalNodes>
        0 -1 2803171 9.8051875829696655e-04</internalNodes>
      <leafValues>
        4.7244673967361450e-01 -4.1802135109901428e-01</leafValues></_>
    <_>
      <internalNodes>
        0 -1 415300 1.8258676864206791e-03</internalNodes>
      <leafValues>
        -2.6548197865486145e-01 8.2892352342605591e-01</leafValues></_>
    <_>
      <internalNodes>
        0 -1 2683546 -8.5489954799413681e-03</internalNodes>
      <leafValues>
        6.8411314487457275e-01 -1.6380465030670166e-01</leafValues></_>
    <_>
      <internalNodes>
        0 -1 6800232 3.3097781124524772e-04</internalNodes>
      <leafValues>
        -1.9688940048217773e-01 7.5651752948760986e-01</leafValues></_>
    <_>
      <internalNodes>
        0 -1 6729848 4.7380017349496484e-05</internalNodes>
      <leafValues>
        3.9202198386192322e-01 -3.8710576295852661e-01</leafValues></_>
    <_>
      <internalNodes>
        0 -1 6160125 -1.0228095925413072e-04</internalNodes>
      <leafValues>
        4.0607830882072449e-01 -4.0580606460571289e-01</leafValues></_>
    <_>
      <internalNodes>
        0 -1 7615468 -3.6863875575363636e-03</internalNodes>
      <leafValues>
        5.4698175191879272e-01 -2.7366971969604492e-01</leafValues></_>
    <_>
      <internalNodes>
        0 -1 7529289 -1.7779592890292406e-03</internalNodes>
      <leafValues>
        5.3001946210861206e-01 -3.1760925054550171e-01</leafValues></_></weakClassifiers></stage8>
</opencv_storage>
