<?xml version="1.0"?>
<opencv_storage>
<stage7>
  <maxWeakCount>17</maxWeakCount>
  <stageThreshold>-1.0680156946182251e+00</stageThreshold>
  <weakClassifiers>
    <_>
      <internalNodes>
        0 -1 5874187 2.2357151010510279e-06</internalNodes>
      <leafValues>
        -1.3709677755832672e-01 5.8644860982894897e-01</leafValues></_>
    <_>
      <internalNodes>
        0 -1 6146913 -4.7858274774625897e-04</internalNodes>
      <leafValues>
        -7.1434175968170166e-01 1.8591669201850891e-01</leafValues></_>
    <_>
      <internalNodes>
        0 -1 2208361 -8.5425622761249542e-02</internalNodes>
      <leafValues>
        -7.6175719499588013e-01 1.6090904176235199e-01</leafValues></_>
    <_>
      <internalNodes>
        0 -1 5981601 8.3948549581691623e-04</internalNodes>
      <leafValues>
        -2.0593719184398651e-01 7.0746803283691406e-01</leafValues></_>
    <_>
      <internalNodes>
        0 -1 7747551 1.9418109150137752e-04</internalNodes>
      <leafValues>
        -1.7751273512840271e-01 6.7459303140640259e-01</leafValues></_>
    <_>
      <internalNodes>
        0 -1 7599780 3.2066605053842068e-03</internalNodes>
      <leafValues>
        -1.6213329136371613e-01 6.2816900014877319e-01</leafValues></_>
    <_>
      <internalNodes>
        0 -1 5480554 -1.1948289466090500e-04</internalNodes>
      <leafValues>
        -4.7388777136802673e-01 2.3012685775756836e-01</leafValues></_>
    <_>
      <internalNodes>
        0 -1 343777 7.3703052476048470e-04</internalNodes>
      <leafValues>
        -1.5535950660705566e-01 7.1881866455078125e-01</leafValues></_>
    <_>
      <internalNodes>
        0 -1 169207 -2.0260611108824378e-06</internalNodes>
      <leafValues>
        3.4894213080406189e-01 -3.1533610820770264e-01</leafValues></_>
    <_>
      <internalNodes>
        0 -1 5710488 -2.9860262293368578e-03</internalNodes>
      <leafValues>
        6.7854815721511841e-01 -1.7021630704402924e-01</leafValues></_>
    <_>
      <internalNodes>
        0 -1 3702648 -5.6492706062272191e-04</internalNodes>
      <leafValues>
        -6.6700023412704468e-01 2.0028015971183777e-01</leafValues></_>
    <_>
      <internalNodes>
        0 -1 5576909 2.0055620097991778e-06</internalNodes>
      <leafValues>
        -3.3697071671485901e-01 3.0887755751609802e-01</leafValues></_>
    <_>
      <internalNodes>
        0 -1 5811947 3.2412743894383311e-04</internalNodes>
      <leafValues>
        -2.3425859212875366e-01 4.6588349342346191e-01</leafValues></_>
    <_>
      <internalNodes>
        0 -1 6682101 -1.3473695144057274e-02</internalNodes>
      <leafValues>
        5.0412124395370483e-01 -1.9513839483261108e-01</leafValues></_>
    <_>
      <internalNodes>
        0 -1 5672084 -9.2491731047630310e-03</internalNodes>
      <leafValues>
        3.9407783746719360e-01 -2.7951580286026001e-01</leafValues></_>
    <_>
      <internalNodes>
        0 -1 5783136 2.3387381133943563e-06</internalNodes>
      <leafValues>
        -2.4500699341297150e-01 4.4741371273994446e-01</leafValues></_>
    <_>
      <internalNodes>
        0 -1 4800724 4.9331553280353546e-02</internalNodes>
      <leafValues>
        1.2830725312232971e-01 -9.5164012908935547e-01</leafValues></_></weakClassifiers></stage7>
</opencv_storage>
