<?xml version="1.0"?>
<opencv_storage>
<stage8>
  <maxWeakCount>17</maxWeakCount>
  <stageThreshold>-9.6203154325485229e-01</stageThreshold>
  <weakClassifiers>
    <_>
      <internalNodes>
        0 -1 6468984 8.1518329679965973e-03</internalNodes>
      <leafValues>
        3.5153582692146301e-01 -8.5185188055038452e-01</leafValues></_>
    <_>
      <internalNodes>
        0 -1 138617 5.0506740808486938e-04</internalNodes>
      <leafValues>
        -1.1784865707159042e-01 7.1669167280197144e-01</leafValues></_>
    <_>
      <internalNodes>
        0 -1 5262147 2.0055620097991778e-06</internalNodes>
      <leafValues>
        -3.5970744490623474e-01 2.6587310433387756e-01</leafValues></_>
    <_>
      <internalNodes>
        0 -1 4541416 5.1978576928377151e-02</internalNodes>
      <leafValues>
        8.0596074461936951e-02 -8.8551360368728638e-01</leafValues></_>
    <_>
      <internalNodes>
        0 -1 725395 7.8757747542113066e-04</internalNodes>
      <leafValues>
        -1.3306897878646851e-01 9.4925284385681152e-01</leafValues></_>
    <_>
      <internalNodes>
        0 -1 7741313 -3.2180681591853499e-04</internalNodes>
      <leafValues>
        7.7048534154891968e-01 -6.1592333018779755e-02</leafValues></_>
    <_>
      <internalNodes>
        0 -1 4488733 -1.0357211576774716e-03</internalNodes>
      <leafValues>
        5.9260380268096924e-01 -1.6710200905799866e-01</leafValues></_>
    <_>
      <internalNodes>
        0 -1 5320704 2.6379998307675123e-03</internalNodes>
      <leafValues>
        -1.8170306086540222e-01 5.1019281148910522e-01</leafValues></_>
    <_>
      <internalNodes>
        0 -1 5493087 -8.9399749413132668e-04</internalNodes>
      <leafValues>
        6.2522321939468384e-01 -1.8287709355354309e-01</leafValues></_>
    <_>
      <internalNodes>
        0 -1 6058189 -1.6558180504944175e-04</internalNodes>
      <leafValues>
        -6.7578178644180298e-01 1.5724787116050720e-01</leafValues></_>
    <_>
      <internalNodes>
        0 -1 6402969 2.0317820599302649e-06</internalNodes>
      <leafValues>
        -2.1731100976467133e-01 4.5996561646461487e-01</leafValues></_>
    <_>
      <internalNodes>
        0 -1 6316279 -3.5243040201748954e-06</internalNodes>
      <leafValues>
        2.7542853355407715e-01 -3.3890950679779053e-01</leafValues></_>
    <_>
      <internalNodes>
        0 -1 7142445 -6.0571026988327503e-03</internalNodes>
      <leafValues>
        6.5307670831680298e-01 -1.5238055586814880e-01</leafValues></_>
    <_>
      <internalNodes>
        0 -1 4060346 -1.1921279132366180e-02</internalNodes>
      <leafValues>
        -8.1230437755584717e-01 1.3716670870780945e-01</leafValues></_>
    <_>
      <internalNodes>
        0 -1 272406 -6.9676485145464540e-04</internalNodes>
      <leafValues>
        5.5667597055435181e-01 -1.8730537593364716e-01</leafValues></_>
    <_>
      <internalNodes>
        0 -1 5041455 2.1497489797184244e-06</internalNodes>
      <leafValues>
        -2.7643650770187378e-01 3.4973376989364624e-01</leafValues></_>
    <_>
      <internalNodes>
        0 -1 5363539 1.9885551409970503e-06</internalNodes>
      <leafValues>
        -3.9768981933593750e-01 2.6894327998161316e-01</leafValues></_></weakClassifiers></stage8>
</opencv_storage>
