<?xml version="1.0"?>
<opencv_storage>
<stage12>
  <maxWeakCount>15</maxWeakCount>
  <stageThreshold>-3.1210622191429138e-01</stageThreshold>
  <weakClassifiers>
    <_>
      <internalNodes>
        0 -1 543662 -4.7183511778712273e-03</internalNodes>
      <leafValues>
        -7.2972971200942993e-01 7.4103236198425293e-01</leafValues></_>
    <_>
      <internalNodes>
        0 -1 983199 1.9614018499851227e-02</internalNodes>
      <leafValues>
        -2.9356658458709717e-01 5.7096689939498901e-01</leafValues></_>
    <_>
      <internalNodes>
        0 -1 145990 -5.3506740368902683e-04</internalNodes>
      <leafValues>
        6.9326227903366089e-01 -1.6497452557086945e-01</leafValues></_>
    <_>
      <internalNodes>
        0 -1 1072028 2.6631279615685344e-04</internalNodes>
      <leafValues>
        -1.4332759380340576e-01 7.1241176128387451e-01</leafValues></_>
    <_>
      <internalNodes>
        0 -1 408642 -2.6339048054069281e-04</internalNodes>
      <leafValues>
        6.4075499773025513e-01 -1.7227314412593842e-01</leafValues></_>
    <_>
      <internalNodes>
        0 -1 682169 -9.0404198272153735e-04</internalNodes>
      <leafValues>
        -7.1314448118209839e-01 1.8597534298896790e-01</leafValues></_>
    <_>
      <internalNodes>
        0 -1 553514 2.6014097966253757e-03</internalNodes>
      <leafValues>
        -3.9851802587509155e-01 3.5534685850143433e-01</leafValues></_>
    <_>
      <internalNodes>
        0 -1 868596 2.2072027786634862e-04</internalNodes>
      <leafValues>
        -2.3559255897998810e-01 6.6879588365554810e-01</leafValues></_>
    <_>
      <internalNodes>
        0 -1 788104 9.3556905630975962e-04</internalNodes>
      <leafValues>
        -2.2777016460895538e-01 6.2432324886322021e-01</leafValues></_>
    <_>
      <internalNodes>
        0 -1 699010 -2.7668080292642117e-04</internalNodes>
      <leafValues>
        4.8418188095092773e-01 -2.5995114445686340e-01</leafValues></_>
    <_>
      <internalNodes>
        0 -1 1083443 -1.6554058529436588e-03</internalNodes>
      <leafValues>
        6.7498385906219482e-01 -1.8590655922889709e-01</leafValues></_>
    <_>
      <internalNodes>
        0 -1 1120908 -1.0252206120640039e-03</internalNodes>
      <leafValues>
        7.2579020261764526e-01 -1.5975445508956909e-01</leafValues></_>
    <_>
      <internalNodes>
        0 -1 95634 -1.0860450565814972e-03</internalNodes>
      <leafValues>
        7.0465016365051270e-01 -1.5937651693820953e-01</leafValues></_>
    <_>
      <internalNodes>
        0 -1 133433 -1.6861461102962494e-02</internalNodes>
      <leafValues>
        2.9105791449546814e-01 -4.6087548136711121e-01</leafValues></_>
    <_>
      <internalNodes>
        0 -1 492065 -6.7473505623638630e-04</internalNodes>
      <leafValues>
        -7.6535570621490479e-01 1.5936124324798584e-01</leafValues></_></weakClassifiers></stage12>
</opencv_storage>
