<?xml version="1.0"?>
<opencv_storage>
<stage7>
  <maxWeakCount>14</maxWeakCount>
  <stageThreshold>-6.2911552190780640e-01</stageThreshold>
  <weakClassifiers>
    <_>
      <internalNodes>
        0 -1 683720 -7.7609214931726456e-03</internalNodes>
      <leafValues>
        -1. 7.5131350755691528e-01</leafValues></_>
    <_>
      <internalNodes>
        0 -1 393493 8.9928219094872475e-03</internalNodes>
      <leafValues>
        -4.8133102059364319e-01 4.9104484915733337e-01</leafValues></_>
    <_>
      <internalNodes>
        0 -1 794850 8.4495488554239273e-03</internalNodes>
      <leafValues>
        -3.3733272552490234e-01 5.6587612628936768e-01</leafValues></_>
    <_>
      <internalNodes>
        0 -1 483921 -4.6306694275699556e-04</internalNodes>
      <leafValues>
        -4.3304020166397095e-01 3.9660805463790894e-01</leafValues></_>
    <_>
      <internalNodes>
        0 -1 894767 8.4771990077570081e-04</internalNodes>
      <leafValues>
        2.0196156203746796e-01 -6.8736797571182251e-01</leafValues></_>
    <_>
      <internalNodes>
        0 -1 490619 -2.5349663337692618e-04</internalNodes>
      <leafValues>
        -5.7174056768417358e-01 2.4332077801227570e-01</leafValues></_>
    <_>
      <internalNodes>
        0 -1 287140 -1.1274476535618305e-02</internalNodes>
      <leafValues>
        4.4212695956230164e-01 -3.4405404329299927e-01</leafValues></_>
    <_>
      <internalNodes>
        0 -1 831971 4.2160582961514592e-04</internalNodes>
      <leafValues>
        -2.1137879788875580e-01 8.2660377025604248e-01</leafValues></_>
    <_>
      <internalNodes>
        0 -1 778175 1.3848142698407173e-03</internalNodes>
      <leafValues>
        2.2636964917182922e-01 -6.9578915834426880e-01</leafValues></_>
    <_>
      <internalNodes>
        0 -1 1121617 -2.5160668883472681e-03</internalNodes>
      <leafValues>
        7.6782131195068359e-01 -2.1734040975570679e-01</leafValues></_>
    <_>
      <internalNodes>
        0 -1 1003623 2.7648644754663110e-04</internalNodes>
      <leafValues>
        -2.3876029253005981e-01 5.6203514337539673e-01</leafValues></_>
    <_>
      <internalNodes>
        0 -1 840542 2.6446330593898892e-04</internalNodes>
      <leafValues>
        -2.3597861826419830e-01 5.7014781236648560e-01</leafValues></_>
    <_>
      <internalNodes>
        0 -1 725542 -4.5449845492839813e-04</internalNodes>
      <leafValues>
        -5.1154428720474243e-01 3.1120142340660095e-01</leafValues></_>
    <_>
      <internalNodes>
        0 -1 488546 6.1576319858431816e-03</internalNodes>
      <leafValues>
        1.6481402516365051e-01 -9.4013112783432007e-01</leafValues></_></weakClassifiers></stage7>
</opencv_storage>
