<?xml version="1.0"?>
<opencv_storage>
<stage15>
  <maxWeakCount>11</maxWeakCount>
  <stageThreshold>-1.3396898508071899e+00</stageThreshold>
  <weakClassifiers>
    <_>
      <internalNodes>
        0 -1 3991220 -2.3254158440977335e-04</internalNodes>
      <leafValues>
        -5.6716418266296387e-01 5.2420699596405029e-01</leafValues></_>
    <_>
      <internalNodes>
        0 -1 7709115 -1.7010073643177748e-03</internalNodes>
      <leafValues>
        8.1034523248672485e-01 -2.6860821247100830e-01</leafValues></_>
    <_>
      <internalNodes>
        0 -1 7581610 -1.0090335272252560e-03</internalNodes>
      <leafValues>
        8.2097071409225464e-01 -2.4254556000232697e-01</leafValues></_>
    <_>
      <internalNodes>
        0 -1 4435710 -2.1501027047634125e-02</internalNodes>
      <leafValues>
        6.4821660518646240e-01 -3.3631095290184021e-01</leafValues></_>
    <_>
      <internalNodes>
        0 -1 7625991 3.1509562395513058e-03</internalNodes>
      <leafValues>
        -3.2406347990036011e-01 6.9283026456832886e-01</leafValues></_>
    <_>
      <internalNodes>
        0 -1 5981416 -1.9349925423739478e-05</internalNodes>
      <leafValues>
        5.7593727111816406e-01 -3.9368170499801636e-01</leafValues></_>
    <_>
      <internalNodes>
        0 -1 191884 5.8981335314456373e-05</internalNodes>
      <leafValues>
        3.4813460707664490e-01 -6.5699017047882080e-01</leafValues></_>
    <_>
      <internalNodes>
        0 -1 7489635 -5.2755104843527079e-04</internalNodes>
      <leafValues>
        6.5255725383758545e-01 -3.9342406392097473e-01</leafValues></_>
    <_>
      <internalNodes>
        0 -1 7765225 7.0290639996528625e-05</internalNodes>
      <leafValues>
        -4.1059434413909912e-01 5.7268649339675903e-01</leafValues></_>
    <_>
      <internalNodes>
        0 -1 6159613 -1.3888014946132898e-03</internalNodes>
      <leafValues>
        6.3658791780471802e-01 -3.2701370120048523e-01</leafValues></_>
    <_>
      <internalNodes>
        0 -1 5462048 2.3335921923717251e-06</internalNodes>
      <leafValues>
        -4.1603034734725952e-01 5.2334237098693848e-01</leafValues></_></weakClassifiers></stage15>
</opencv_storage>
