<?xml version="1.0"?>
<opencv_storage>
<stage2>
  <maxWeakCount>11</maxWeakCount>
  <stageThreshold>-9.0519273281097412e-01</stageThreshold>
  <weakClassifiers>
    <_>
      <internalNodes>
        0 -1 4411713 -5.9952014125883579e-03</internalNodes>
      <leafValues>
        5.7874393463134766e-01 -3.5221239924430847e-01</leafValues></_>
    <_>
      <internalNodes>
        0 -1 4208321 -1.9036913272429956e-06</internalNodes>
      <leafValues>
        5.4541957378387451e-01 -3.9318332076072693e-01</leafValues></_>
    <_>
      <internalNodes>
        0 -1 3959064 1.8560955068096519e-03</internalNodes>
      <leafValues>
        -4.9913564324378967e-01 4.4385460019111633e-01</leafValues></_>
    <_>
      <internalNodes>
        0 -1 7026825 -5.2105193026363850e-04</internalNodes>
      <leafValues>
        6.4384740591049194e-01 -3.2120022177696228e-01</leafValues></_>
    <_>
      <internalNodes>
        0 -1 51498 -4.0863633330445737e-06</internalNodes>
      <leafValues>
        6.4451253414154053e-01 -3.2311445474624634e-01</leafValues></_>
    <_>
      <internalNodes>
        0 -1 5728337 -6.2051630811765790e-04</internalNodes>
      <leafValues>
        7.0392769575119019e-01 -2.7408161759376526e-01</leafValues></_>
    <_>
      <internalNodes>
        0 -1 5430125 4.6876358101144433e-04</internalNodes>
      <leafValues>
        -2.8920927643775940e-01 6.5075910091400146e-01</leafValues></_>
    <_>
      <internalNodes>
        0 -1 105950 1.2748981826007366e-02</internalNodes>
      <leafValues>
        -3.9005061984062195e-01 4.9390590190887451e-01</leafValues></_>
    <_>
      <internalNodes>
        0 -1 5747686 1.0694682132452726e-03</internalNodes>
      <leafValues>
        -2.5026410818099976e-01 8.0088955163955688e-01</leafValues></_>
    <_>
      <internalNodes>
        0 -1 7539359 1.7916492652148008e-03</internalNodes>
      <leafValues>
        -2.8731611371040344e-01 6.5537041425704956e-01</leafValues></_>
    <_>
      <internalNodes>
        0 -1 2181769 -1.2511373497545719e-03</internalNodes>
      <leafValues>
        6.3394492864608765e-01 -2.8332811594009399e-01</leafValues></_></weakClassifiers></stage2>
</opencv_storage>
