<?xml version="1.0"?>
<opencv_storage>
<stage7>
  <maxWeakCount>12</maxWeakCount>
  <stageThreshold>-1.2267847061157227e+00</stageThreshold>
  <weakClassifiers>
    <_>
      <internalNodes>
        0 -1 4691024 6.0306768864393234e-03</internalNodes>
      <leafValues>
        3.7707182765007019e-01 -9.6052628755569458e-01</leafValues></_>
    <_>
      <internalNodes>
        0 -1 4812515 -1.2051618250552565e-04</internalNodes>
      <leafValues>
        -6.0142821073532104e-01 2.8480896353721619e-01</leafValues></_>
    <_>
      <internalNodes>
        0 -1 6245637 -1.4642140013165772e-04</internalNodes>
      <leafValues>
        5.7654953002929688e-01 -3.2229205965995789e-01</leafValues></_>
    <_>
      <internalNodes>
        0 -1 7356103 1.2146798893809319e-02</internalNodes>
      <leafValues>
        -3.0517491698265076e-01 5.3815859556198120e-01</leafValues></_>
    <_>
      <internalNodes>
        0 -1 8059 -5.1530423661461100e-05</internalNodes>
      <leafValues>
        -7.4060159921646118e-01 2.2332051396369934e-01</leafValues></_>
    <_>
      <internalNodes>
        0 -1 5887195 2.6339048054069281e-04</internalNodes>
      <leafValues>
        -4.6169355511665344e-01 3.5570684075355530e-01</leafValues></_>
    <_>
      <internalNodes>
        0 -1 2755889 3.8009171839803457e-04</internalNodes>
      <leafValues>
        -2.8796333074569702e-01 4.7955477237701416e-01</leafValues></_>
    <_>
      <internalNodes>
        0 -1 2698333 3.8298612344078720e-04</internalNodes>
      <leafValues>
        -2.5928038358688354e-01 5.8360099792480469e-01</leafValues></_>
    <_>
      <internalNodes>
        0 -1 6566802 1.1810389696620405e-04</internalNodes>
      <leafValues>
        -2.4820177257061005e-01 5.5600333213806152e-01</leafValues></_>
    <_>
      <internalNodes>
        0 -1 7760648 -1.8511503003537655e-04</internalNodes>
      <leafValues>
        5.9316319227218628e-01 -2.1109648048877716e-01</leafValues></_>
    <_>
      <internalNodes>
        0 -1 2032701 8.5977418348193169e-04</internalNodes>
      <leafValues>
        -1.4481936395168304e-01 9.0137761831283569e-01</leafValues></_>
    <_>
      <internalNodes>
        0 -1 5569911 4.4998239900451154e-05</internalNodes>
      <leafValues>
        1.9737267494201660e-01 -8.3267360925674438e-01</leafValues></_></weakClassifiers></stage7>
</opencv_storage>
