<?xml version="1.0"?>
<opencv_storage>
<stage1>
  <maxWeakCount>11</maxWeakCount>
  <stageThreshold>-1.4397808313369751e+00</stageThreshold>
  <weakClassifiers>
    <_>
      <internalNodes>
        0 -1 5774615 1.9546068870113231e-06</internalNodes>
      <leafValues>
        -2.3862068355083466e-01 6.5485715866088867e-01</leafValues></_>
    <_>
      <internalNodes>
        0 -1 5140810 4.6862577437423170e-04</internalNodes>
      <leafValues>
        -3.1308355927467346e-01 5.2736639976501465e-01</leafValues></_>
    <_>
      <internalNodes>
        0 -1 15906 1.9591485033743083e-04</internalNodes>
      <leafValues>
        -2.8162965178489685e-01 5.8819711208343506e-01</leafValues></_>
    <_>
      <internalNodes>
        0 -1 6249153 2.2896533664606977e-06</internalNodes>
      <leafValues>
        -3.5176470875740051e-01 4.6331685781478882e-01</leafValues></_>
    <_>
      <internalNodes>
        0 -1 4799998 1.3324762694537640e-03</internalNodes>
      <leafValues>
        -4.7932615876197815e-01 3.3272024989128113e-01</leafValues></_>
    <_>
      <internalNodes>
        0 -1 6780421 3.3446529414504766e-03</internalNodes>
      <leafValues>
        -2.3970922827720642e-01 7.0463949441909790e-01</leafValues></_>
    <_>
      <internalNodes>
        0 -1 7729464 3.9033030043356121e-04</internalNodes>
      <leafValues>
        -1.9714069366455078e-01 6.3736677169799805e-01</leafValues></_>
    <_>
      <internalNodes>
        0 -1 70861 2.0080860704183578e-02</internalNodes>
      <leafValues>
        -2.1477471292018890e-01 7.3869913816452026e-01</leafValues></_>
    <_>
      <internalNodes>
        0 -1 5833142 4.4607854215428233e-04</internalNodes>
      <leafValues>
        -1.8123643100261688e-01 7.5890505313873291e-01</leafValues></_>
    <_>
      <internalNodes>
        0 -1 6382955 -1.7301170737482607e-04</internalNodes>
      <leafValues>
        4.5201385021209717e-01 -2.9672822356224060e-01</leafValues></_>
    <_>
      <internalNodes>
        0 -1 23290 -2.0055620097991778e-06</internalNodes>
      <leafValues>
        4.5147094130516052e-01 -3.5432612895965576e-01</leafValues></_></weakClassifiers></stage1>
</opencv_storage>
