<?xml version="1.0"?>
<opencv_storage>
<stage6>
  <maxWeakCount>18</maxWeakCount>
  <stageThreshold>-9.4934648275375366e-01</stageThreshold>
  <weakClassifiers>
    <_>
      <internalNodes>
        0 -1 6056272 2.0055620097991778e-06</internalNodes>
      <leafValues>
        -1.4244604110717773e-01 5.5138123035430908e-01</leafValues></_>
    <_>
      <internalNodes>
        0 -1 343605 -3.2896100310608745e-04</internalNodes>
      <leafValues>
        8.7370711565017700e-01 -1.0382585227489471e-01</leafValues></_>
    <_>
      <internalNodes>
        0 -1 1422609 4.0835136314854026e-04</internalNodes>
      <leafValues>
        -1.4788442850112915e-01 9.2250537872314453e-01</leafValues></_>
    <_>
      <internalNodes>
        0 -1 7635533 1.0395749472081661e-02</internalNodes>
      <leafValues>
        -8.7459214031696320e-02 7.7695840597152710e-01</leafValues></_>
    <_>
      <internalNodes>
        0 -1 6151073 2.0517018128884956e-06</internalNodes>
      <leafValues>
        -2.5072899460792542e-01 4.0933743119239807e-01</leafValues></_>
    <_>
      <internalNodes>
        0 -1 5780230 5.0588662270456553e-04</internalNodes>
      <leafValues>
        1.3013903796672821e-01 -8.1805312633514404e-01</leafValues></_>
    <_>
      <internalNodes>
        0 -1 6228011 2.0055620097991778e-06</internalNodes>
      <leafValues>
        -3.6656257510185242e-01 2.6217624545097351e-01</leafValues></_>
    <_>
      <internalNodes>
        0 -1 5559422 -9.3838963657617569e-03</internalNodes>
      <leafValues>
        -6.0208821296691895e-01 1.9022883474826813e-01</leafValues></_>
    <_>
      <internalNodes>
        0 -1 561064 -4.8308906843885779e-04</internalNodes>
      <leafValues>
        7.3490107059478760e-01 -1.3574373722076416e-01</leafValues></_>
    <_>
      <internalNodes>
        0 -1 887395 -4.9579538404941559e-02</internalNodes>
      <leafValues>
        -6.6149359941482544e-01 1.7852473258972168e-01</leafValues></_>
    <_>
      <internalNodes>
        0 -1 3921866 -7.6695457100868225e-03</internalNodes>
      <leafValues>
        5.2441465854644775e-01 -2.1378283202648163e-01</leafValues></_>
    <_>
      <internalNodes>
        0 -1 4998291 4.8445314168930054e-03</internalNodes>
      <leafValues>
        -1.2647055089473724e-01 8.3559447526931763e-01</leafValues></_>
    <_>
      <internalNodes>
        0 -1 6731808 1.5450860373675823e-02</internalNodes>
      <leafValues>
        -2.4950022995471954e-01 4.3486800789833069e-01</leafValues></_>
    <_>
      <internalNodes>
        0 -1 5612138 4.6210107393562794e-03</internalNodes>
      <leafValues>
        -1.2855835258960724e-01 7.2122633457183838e-01</leafValues></_>
    <_>
      <internalNodes>
        0 -1 878215 1.1133269872516394e-03</internalNodes>
      <leafValues>
        -1.1213643848896027e-01 7.5064104795455933e-01</leafValues></_>
    <_>
      <internalNodes>
        0 -1 184281 -6.1592290876433253e-06</internalNodes>
      <leafValues>
        3.4295731782913208e-01 -2.8726604580879211e-01</leafValues></_>
    <_>
      <internalNodes>
        0 -1 5325475 4.3312767520546913e-03</internalNodes>
      <leafValues>
        -1.9040739536285400e-01 5.3831350803375244e-01</leafValues></_>
    <_>
      <internalNodes>
        0 -1 5633936 -5.5535510182380676e-04</internalNodes>
      <leafValues>
        6.2263381481170654e-01 -1.6442857682704926e-01</leafValues></_></weakClassifiers></stage6>
</opencv_storage>
