<?xml version="1.0"?>
<opencv_storage>
<stage17>
  <maxWeakCount>9</maxWeakCount>
  <stageThreshold>-1.1954537630081177e+00</stageThreshold>
  <weakClassifiers>
    <_>
      <internalNodes>
        0 -1 2480520 -4.7311275266110897e-03</internalNodes>
      <leafValues>
        -5.7499998807907104e-01 5.2499997615814209e-01</leafValues></_>
    <_>
      <internalNodes>
        0 -1 6542265 5.2236195188015699e-05</internalNodes>
      <leafValues>
        -4.1350072622299194e-01 5.9243381023406982e-01</leafValues></_>
    <_>
      <internalNodes>
        0 -1 7709011 -1.3338113203644753e-03</internalNodes>
      <leafValues>
        7.6821285486221313e-01 -2.9044103622436523e-01</leafValues></_>
    <_>
      <internalNodes>
        0 -1 6383144 -1.4696191101393197e-05</internalNodes>
      <leafValues>
        6.5754902362823486e-01 -3.3011791110038757e-01</leafValues></_>
    <_>
      <internalNodes>
        0 -1 4501580 -8.3179865032434464e-04</internalNodes>
      <leafValues>
        6.4568156003952026e-01 -2.9255208373069763e-01</leafValues></_>
    <_>
      <internalNodes>
        0 -1 6674082 -1.0922604997176677e-04</internalNodes>
      <leafValues>
        7.0631486177444458e-01 -3.1758052110671997e-01</leafValues></_>
    <_>
      <internalNodes>
        0 -1 5465319 4.9575387492950540e-06</internalNodes>
      <leafValues>
        -4.0287071466445923e-01 5.5381238460540771e-01</leafValues></_>
    <_>
      <internalNodes>
        0 -1 6334339 -4.5970155042596161e-05</internalNodes>
      <leafValues>
        6.1590218544006348e-01 -3.8401561975479126e-01</leafValues></_>
    <_>
      <internalNodes>
        0 -1 5536833 7.2084534622263163e-05</internalNodes>
      <leafValues>
        -2.7288481593132019e-01 7.8672951459884644e-01</leafValues></_></weakClassifiers></stage17>
</opencv_storage>
