<?xml version="1.0"?>
<opencv_storage>
<stage19>
  <maxWeakCount>5</maxWeakCount>
  <stageThreshold>-9.5124459266662598e-01</stageThreshold>
  <weakClassifiers>
    <_>
      <internalNodes>
        0 -1 744269 -7.6639518141746521e-02</internalNodes>
      <leafValues>
        -7.2789114713668823e-01 6.2208801507949829e-01</leafValues></_>
    <_>
      <internalNodes>
        0 -1 6146642 3.4524053335189819e-03</internalNodes>
      <leafValues>
        -3.3052232861518860e-01 7.0708817243576050e-01</leafValues></_>
    <_>
      <internalNodes>
        0 -1 5555717 2.0142571884207428e-05</internalNodes>
      <leafValues>
        -2.3517210781574249e-01 8.3453017473220825e-01</leafValues></_>
    <_>
      <internalNodes>
        0 -1 6717940 -2.5816564448177814e-04</internalNodes>
      <leafValues>
        6.1129945516586304e-01 -3.4483656287193298e-01</leafValues></_>
    <_>
      <internalNodes>
        0 -1 5414271 8.2252733409404755e-04</internalNodes>
      <leafValues>
        -2.6895847916603088e-01 7.5036919116973877e-01</leafValues></_></weakClassifiers></stage19>
</opencv_storage>
