<?xml version="1.0"?>
<opencv_storage>
<stage9>
  <maxWeakCount>13</maxWeakCount>
  <stageThreshold>-2.8416234254837036e-01</stageThreshold>
  <weakClassifiers>
    <_>
      <internalNodes>
        0 -1 640778 4.0611596778035164e-03</internalNodes>
      <leafValues>
        7.4323141574859619e-01 -8.8571429252624512e-01</leafValues></_>
    <_>
      <internalNodes>
        0 -1 856624 2.6589872504700907e-05</internalNodes>
      <leafValues>
        -1.1632102727890015e-01 7.3919093608856201e-01</leafValues></_>
    <_>
      <internalNodes>
        0 -1 1036378 1.9448236562311649e-03</internalNodes>
      <leafValues>
        -5.4273164272308350e-01 3.2755473256111145e-01</leafValues></_>
    <_>
      <internalNodes>
        0 -1 159079 -8.7096483912318945e-04</internalNodes>
      <leafValues>
        7.3160904645919800e-01 -2.2966468334197998e-01</leafValues></_>
    <_>
      <internalNodes>
        0 -1 388885 6.9559919211314991e-06</internalNodes>
      <leafValues>
        -2.5592353940010071e-01 5.9903997182846069e-01</leafValues></_>
    <_>
      <internalNodes>
        0 -1 862324 -2.0641493392759003e-05</internalNodes>
      <leafValues>
        5.3150433301925659e-01 -2.7404308319091797e-01</leafValues></_>
    <_>
      <internalNodes>
        0 -1 463442 -8.6324904114007950e-03</internalNodes>
      <leafValues>
        3.7979593873023987e-01 -4.4232490658760071e-01</leafValues></_>
    <_>
      <internalNodes>
        0 -1 857692 -7.2862571869336534e-06</internalNodes>
      <leafValues>
        4.5711070299148560e-01 -3.1644031405448914e-01</leafValues></_>
    <_>
      <internalNodes>
        0 -1 590873 2.6273278053849936e-03</internalNodes>
      <leafValues>
        2.1720895171165466e-01 -6.9020694494247437e-01</leafValues></_>
    <_>
      <internalNodes>
        0 -1 360773 5.0629687029868364e-04</internalNodes>
      <leafValues>
        -2.5119340419769287e-01 6.0824012756347656e-01</leafValues></_>
    <_>
      <internalNodes>
        0 -1 432351 3.2578066457062960e-03</internalNodes>
      <leafValues>
        2.4116903543472290e-01 -7.2607743740081787e-01</leafValues></_>
    <_>
      <internalNodes>
        0 -1 27714 -5.5955308675765991e-01</internalNodes>
      <leafValues>
        6.2880754470825195e-01 -2.5311115384101868e-01</leafValues></_>
    <_>
      <internalNodes>
        0 -1 592633 2.3669545043958351e-05</internalNodes>
      <leafValues>
        -2.9187694191932678e-01 5.9713768959045410e-01</leafValues></_></weakClassifiers></stage9>
</opencv_storage>
