<?xml version="1.0"?>
<opencv_storage>
<stage2>
  <maxWeakCount>6</maxWeakCount>
  <stageThreshold>-1.2618447840213776e-01</stageThreshold>
  <weakClassifiers>
    <_>
      <internalNodes>
        0 -1 595212 -1.4313326217234135e-02</internalNodes>
      <leafValues>
        -9.3650794029235840e-01 7.8692924976348877e-01</leafValues></_>
    <_>
      <internalNodes>
        0 -1 759632 3.6847639828920364e-02</internalNodes>
      <leafValues>
        -4.7392603754997253e-01 7.1848672628402710e-01</leafValues></_>
    <_>
      <internalNodes>
        0 -1 284297 1.8477408215403557e-02</internalNodes>
      <leafValues>
        -4.7315055131912231e-01 5.6763374805450439e-01</leafValues></_>
    <_>
      <internalNodes>
        0 -1 855184 1.5197792090475559e-03</internalNodes>
      <leafValues>
        3.6529389023780823e-01 -6.9347226619720459e-01</leafValues></_>
    <_>
      <internalNodes>
        0 -1 35452 -2.7454338967800140e-02</internalNodes>
      <leafValues>
        5.9676921367645264e-01 -4.5684295892715454e-01</leafValues></_>
    <_>
      <internalNodes>
        0 -1 589297 -1.0700225830078125e-03</internalNodes>
      <leafValues>
        -9.2810022830963135e-01 2.3669058084487915e-01</leafValues></_></weakClassifiers></stage2>
</opencv_storage>
