<?xml version="1.0"?>
<opencv_storage>
<stage7>
  <maxWeakCount>14</maxWeakCount>
  <stageThreshold>-1.2106140851974487e+00</stageThreshold>
  <weakClassifiers>
    <_>
      <internalNodes>
        0 -1 154843 6.8854162236675620e-05</internalNodes>
      <leafValues>
        4.3790012598037720e-01 -5.4437869787216187e-01</leafValues></_>
    <_>
      <internalNodes>
        0 -1 4841467 -3.5563280107453465e-04</internalNodes>
      <leafValues>
        5.6940472126007080e-01 -2.5251108407974243e-01</leafValues></_>
    <_>
      <internalNodes>
        0 -1 6071882 -1.9146595150232315e-05</internalNodes>
      <leafValues>
        5.1241397857666016e-01 -3.3666092157363892e-01</leafValues></_>
    <_>
      <internalNodes>
        0 -1 4310954 -4.6804351732134819e-03</internalNodes>
      <leafValues>
        8.1777906417846680e-01 -1.8225716054439545e-01</leafValues></_>
    <_>
      <internalNodes>
        0 -1 5945549 -1.5382636338472366e-03</internalNodes>
      <leafValues>
        4.5812165737152100e-01 -2.7680289745330811e-01</leafValues></_>
    <_>
      <internalNodes>
        0 -1 480259 9.0063513198401779e-05</internalNodes>
      <leafValues>
        -3.5979652404785156e-01 3.8214889168739319e-01</leafValues></_>
    <_>
      <internalNodes>
        0 -1 4248497 1.9517068285495043e-03</internalNodes>
      <leafValues>
        -3.3141228556632996e-01 3.7383639812469482e-01</leafValues></_>
    <_>
      <internalNodes>
        0 -1 2865870 1.3179766014218330e-02</internalNodes>
      <leafValues>
        1.5151055157184601e-01 -8.4502232074737549e-01</leafValues></_>
    <_>
      <internalNodes>
        0 -1 7765021 8.0493814311921597e-04</internalNodes>
      <leafValues>
        -2.5412437319755554e-01 6.5939199924468994e-01</leafValues></_>
    <_>
      <internalNodes>
        0 -1 5258031 3.4168676938861609e-03</internalNodes>
      <leafValues>
        2.4774020910263062e-01 -5.8497864007949829e-01</leafValues></_>
    <_>
      <internalNodes>
        0 -1 6638509 3.6757406778633595e-03</internalNodes>
      <leafValues>
        -2.0753911137580872e-01 6.3839745521545410e-01</leafValues></_>
    <_>
      <internalNodes>
        0 -1 7656784 6.3624535687267780e-04</internalNodes>
      <leafValues>
        -2.0400376617908478e-01 5.9816610813140869e-01</leafValues></_>
    <_>
      <internalNodes>
        0 -1 1606772 -1.4678943902254105e-02</internalNodes>
      <leafValues>
        6.8037515878677368e-01 -1.6285911202430725e-01</leafValues></_>
    <_>
      <internalNodes>
        0 -1 869549 -1.6526307910680771e-02</internalNodes>
      <leafValues>
        6.8056517839431763e-01 -1.5434685349464417e-01</leafValues></_></weakClassifiers></stage7>
</opencv_storage>
