<?xml version="1.0"?>
<opencv_storage>
<stage17>
  <maxWeakCount>15</maxWeakCount>
  <stageThreshold>-9.3270105123519897e-01</stageThreshold>
  <weakClassifiers>
    <_>
      <internalNodes>
        0 -1 655486 2.7422523498535156e-01</internalNodes>
      <leafValues>
        7.3761945962905884e-01 -1.</leafValues></_>
    <_>
      <internalNodes>
        0 -1 592903 -9.7400695085525513e-04</internalNodes>
      <leafValues>
        -2.5307881832122803e-01 5.3092569112777710e-01</leafValues></_>
    <_>
      <internalNodes>
        0 -1 1024017 5.8305785059928894e-03</internalNodes>
      <leafValues>
        -3.4400287270545959e-01 4.6139484643936157e-01</leafValues></_>
    <_>
      <internalNodes>
        0 -1 65371 -6.9394183810800314e-04</internalNodes>
      <leafValues>
        5.1643276214599609e-01 -2.6055437326431274e-01</leafValues></_>
    <_>
      <internalNodes>
        0 -1 235322 -9.0221397113054991e-04</internalNodes>
      <leafValues>
        6.1547076702117920e-01 -2.7600973844528198e-01</leafValues></_>
    <_>
      <internalNodes>
        0 -1 155885 -3.1801229342818260e-03</internalNodes>
      <leafValues>
        4.5336896181106567e-01 -3.1570348143577576e-01</leafValues></_>
    <_>
      <internalNodes>
        0 -1 506033 -4.0277530206367373e-04</internalNodes>
      <leafValues>
        5.3991580009460449e-01 -2.6072615385055542e-01</leafValues></_>
    <_>
      <internalNodes>
        0 -1 812337 8.6973663419485092e-03</internalNodes>
      <leafValues>
        1.7742876708507538e-01 -8.7283688783645630e-01</leafValues></_>
    <_>
      <internalNodes>
        0 -1 537153 6.7442415456753224e-06</internalNodes>
      <leafValues>
        -3.0750793218612671e-01 4.9387440085411072e-01</leafValues></_>
    <_>
      <internalNodes>
        0 -1 587577 1.8926113625639118e-05</internalNodes>
      <leafValues>
        -3.4318077564239502e-01 4.0016809105873108e-01</leafValues></_>
    <_>
      <internalNodes>
        0 -1 497397 -1.4437870122492313e-03</internalNodes>
      <leafValues>
        -6.4308422803878784e-01 2.2337663173675537e-01</leafValues></_>
    <_>
      <internalNodes>
        0 -1 157435 8.4471554146148264e-05</internalNodes>
      <leafValues>
        -2.5376290082931519e-01 6.0058134794235229e-01</leafValues></_>
    <_>
      <internalNodes>
        0 -1 231435 -2.5374704273417592e-04</internalNodes>
      <leafValues>
        6.1433929204940796e-01 -2.0169375836849213e-01</leafValues></_>
    <_>
      <internalNodes>
        0 -1 846643 -2.5704053696244955e-03</internalNodes>
      <leafValues>
        -7.5038951635360718e-01 2.0937412977218628e-01</leafValues></_>
    <_>
      <internalNodes>
        0 -1 406260 3.1623298127669841e-05</internalNodes>
      <leafValues>
        -2.9068127274513245e-01 5.1690202951431274e-01</leafValues></_></weakClassifiers></stage17>
</opencv_storage>
