<?xml version="1.0"?>
<opencv_storage>
<stage15>
  <maxWeakCount>6</maxWeakCount>
  <stageThreshold>-1.2947617769241333e+00</stageThreshold>
  <weakClassifiers>
    <_>
      <internalNodes>
        0 -1 3568550 1.3027388602495193e-02</internalNodes>
      <leafValues>
        6.0112756490707397e-01 -7.3388773202896118e-01</leafValues></_>
    <_>
      <internalNodes>
        0 -1 7079134 1.7706507351249456e-03</internalNodes>
      <leafValues>
        -2.7373132109642029e-01 8.6736190319061279e-01</leafValues></_>
    <_>
      <internalNodes>
        0 -1 2334006 -2.6720261303125881e-05</internalNodes>
      <leafValues>
        -5.1012861728668213e-01 5.5975532531738281e-01</leafValues></_>
    <_>
      <internalNodes>
        0 -1 1575908 -8.2491402281448245e-05</internalNodes>
      <leafValues>
        -4.8362028598785400e-01 5.3152430057525635e-01</leafValues></_>
    <_>
      <internalNodes>
        0 -1 7682282 -6.9999601691961288e-05</internalNodes>
      <leafValues>
        9.1727685928344727e-01 -2.4129889905452728e-01</leafValues></_>
    <_>
      <internalNodes>
        0 -1 7559240 5.3370725363492966e-03</internalNodes>
      <leafValues>
        -2.1067070960998535e-01 9.2692834138870239e-01</leafValues></_></weakClassifiers></stage15>
</opencv_storage>
