<?xml version="1.0"?>
<opencv_storage>
<stage10>
  <maxWeakCount>10</maxWeakCount>
  <stageThreshold>-1.2789560556411743e+00</stageThreshold>
  <weakClassifiers>
    <_>
      <internalNodes>
        0 -1 5254833 -4.8327055992558599e-04</internalNodes>
      <leafValues>
        -7.7685952186584473e-01 4.3298968672752380e-01</leafValues></_>
    <_>
      <internalNodes>
        0 -1 7348357 5.3414301946759224e-03</internalNodes>
      <leafValues>
        -3.2419034838676453e-01 6.4041918516159058e-01</leafValues></_>
    <_>
      <internalNodes>
        0 -1 5600577 1.8487000488676131e-04</internalNodes>
      <leafValues>
        4.4476133584976196e-01 -5.2097314596176147e-01</leafValues></_>
    <_>
      <internalNodes>
        0 -1 4599808 4.3801561696454883e-04</internalNodes>
      <leafValues>
        -2.9769313335418701e-01 7.6339066028594971e-01</leafValues></_>
    <_>
      <internalNodes>
        0 -1 6021611 -7.1662338450551033e-04</internalNodes>
      <leafValues>
        5.5905085802078247e-01 -3.1419080495834351e-01</leafValues></_>
    <_>
      <internalNodes>
        0 -1 24374 -1.2275570770725608e-04</internalNodes>
      <leafValues>
        -5.5078375339508057e-01 3.0848029255867004e-01</leafValues></_>
    <_>
      <internalNodes>
        0 -1 4626303 -9.2248701548669487e-05</internalNodes>
      <leafValues>
        -5.7805216312408447e-01 3.3381137251853943e-01</leafValues></_>
    <_>
      <internalNodes>
        0 -1 5787087 5.6485051754862070e-04</internalNodes>
      <leafValues>
        -2.9512348771095276e-01 5.6910383701324463e-01</leafValues></_>
    <_>
      <internalNodes>
        0 -1 7722484 1.0092679876834154e-03</internalNodes>
      <leafValues>
        -2.4267138540744781e-01 7.4059855937957764e-01</leafValues></_>
    <_>
      <internalNodes>
        0 -1 160558 -3.1806921469978988e-05</internalNodes>
      <leafValues>
        -4.6586558222770691e-01 3.9777374267578125e-01</leafValues></_></weakClassifiers></stage10>
</opencv_storage>
