<?xml version="1.0"?>
<opencv_storage>
<stage17>
  <maxWeakCount>7</maxWeakCount>
  <stageThreshold>-9.1657006740570068e-01</stageThreshold>
  <weakClassifiers>
    <_>
      <internalNodes>
        0 -1 7252829 1.5627708286046982e-02</internalNodes>
      <leafValues>
        -1.3631841540336609e-01 9.0252101421356201e-01</leafValues></_>
    <_>
      <internalNodes>
        0 -1 7626861 1.4710487448610365e-04</internalNodes>
      <leafValues>
        -2.4036385118961334e-01 8.0438429117202759e-01</leafValues></_>
    <_>
      <internalNodes>
        0 -1 7487618 -3.3006747253239155e-04</internalNodes>
      <leafValues>
        5.9324580430984497e-01 -4.1806587576866150e-01</leafValues></_>
    <_>
      <internalNodes>
        0 -1 5924763 -1.4871293387841433e-04</internalNodes>
      <leafValues>
        6.8454104661941528e-01 -3.6754205822944641e-01</leafValues></_>
    <_>
      <internalNodes>
        0 -1 4725565 5.8851524954661727e-05</internalNodes>
      <leafValues>
        -2.8448465466499329e-01 7.5925058126449585e-01</leafValues></_>
    <_>
      <internalNodes>
        0 -1 1041136 9.2563603539019823e-04</internalNodes>
      <leafValues>
        -2.3206232488155365e-01 7.8954863548278809e-01</leafValues></_>
    <_>
      <internalNodes>
        0 -1 2760509 4.2302382644265890e-04</internalNodes>
      <leafValues>
        -2.4904458224773407e-01 8.0392307043075562e-01</leafValues></_></weakClassifiers></stage17>
</opencv_storage>
