<?xml version="1.0"?>
<opencv_storage>
<stage13>
  <maxWeakCount>10</maxWeakCount>
  <stageThreshold>-1.5979493856430054e+00</stageThreshold>
  <weakClassifiers>
    <_>
      <internalNodes>
        0 -1 6834529 -1.2133631389588118e-03</internalNodes>
      <leafValues>
        -4.4518271088600159e-01 5.9167951345443726e-01</leafValues></_>
    <_>
      <internalNodes>
        0 -1 7704718 2.7530793886398897e-05</internalNodes>
      <leafValues>
        -2.5526785850524902e-01 6.5589874982833862e-01</leafValues></_>
    <_>
      <internalNodes>
        0 -1 5295041 1.5923532191663980e-03</internalNodes>
      <leafValues>
        -2.8505271673202515e-01 6.3433200120925903e-01</leafValues></_>
    <_>
      <internalNodes>
        0 -1 7527354 -3.0118734575808048e-03</internalNodes>
      <leafValues>
        6.7320793867111206e-01 -2.7495419979095459e-01</leafValues></_>
    <_>
      <internalNodes>
        0 -1 7723020 -1.3569583825301379e-04</internalNodes>
      <leafValues>
        5.0563526153564453e-01 -3.7166267633438110e-01</leafValues></_>
    <_>
      <internalNodes>
        0 -1 5078649 -2.6807768153958023e-04</internalNodes>
      <leafValues>
        5.7706356048583984e-01 -3.2502791285514832e-01</leafValues></_>
    <_>
      <internalNodes>
        0 -1 7752101 1.3570195005740970e-04</internalNodes>
      <leafValues>
        -2.4824488162994385e-01 5.9579390287399292e-01</leafValues></_>
    <_>
      <internalNodes>
        0 -1 5695724 2.4954526452347636e-04</internalNodes>
      <leafValues>
        -2.5066968798637390e-01 7.8316867351531982e-01</leafValues></_>
    <_>
      <internalNodes>
        0 -1 3990838 -4.5043919235467911e-03</internalNodes>
      <leafValues>
        -7.5183320045471191e-01 3.0347996950149536e-01</leafValues></_>
    <_>
      <internalNodes>
        0 -1 6203473 -3.0277431942522526e-03</internalNodes>
      <leafValues>
        6.4277750253677368e-01 -3.4745812416076660e-01</leafValues></_></weakClassifiers></stage13>
</opencv_storage>
