<?xml version="1.0"?>
<opencv_storage>
<stage9>
  <maxWeakCount>14</maxWeakCount>
  <stageThreshold>-1.6827417612075806e+00</stageThreshold>
  <weakClassifiers>
    <_>
      <internalNodes>
        0 -1 6533318 -2.3729666136205196e-03</internalNodes>
      <leafValues>
        -5.8641976118087769e-01 4.6238243579864502e-01</leafValues></_>
    <_>
      <internalNodes>
        0 -1 5851314 2.9539321549236774e-03</internalNodes>
      <leafValues>
        2.5917133688926697e-01 -7.7484852075576782e-01</leafValues></_>
    <_>
      <internalNodes>
        0 -1 7551226 2.4770306481514126e-05</internalNodes>
      <leafValues>
        -3.6860379576683044e-01 4.6594530344009399e-01</leafValues></_>
    <_>
      <internalNodes>
        0 -1 7565146 -1.0303308954462409e-04</internalNodes>
      <leafValues>
        5.8080989122390747e-01 -3.0259662866592407e-01</leafValues></_>
    <_>
      <internalNodes>
        0 -1 5980842 1.8685471150092781e-04</internalNodes>
      <leafValues>
        -3.3034387230873108e-01 5.8523321151733398e-01</leafValues></_>
    <_>
      <internalNodes>
        0 -1 5386509 3.6588963121175766e-04</internalNodes>
      <leafValues>
        -2.4321745336055756e-01 6.0770940780639648e-01</leafValues></_>
    <_>
      <internalNodes>
        0 -1 176838 1.3205612958699930e-05</internalNodes>
      <leafValues>
        2.4157713353633881e-01 -7.1338546276092529e-01</leafValues></_>
    <_>
      <internalNodes>
        0 -1 2399308 -1.1097064614295959e-01</internalNodes>
      <leafValues>
        5.1683855056762695e-01 -3.3677530288696289e-01</leafValues></_>
    <_>
      <internalNodes>
        0 -1 5493196 6.0090002079959959e-05</internalNodes>
      <leafValues>
        -2.5153973698616028e-01 6.7494827508926392e-01</leafValues></_>
    <_>
      <internalNodes>
        0 -1 3150779 8.6905487114563584e-04</internalNodes>
      <leafValues>
        4.3015673756599426e-01 -4.3463912606239319e-01</leafValues></_>
    <_>
      <internalNodes>
        0 -1 1369805 9.9928844720125198e-03</internalNodes>
      <leafValues>
        -2.3701003193855286e-01 8.3772349357604980e-01</leafValues></_>
    <_>
      <internalNodes>
        0 -1 7348357 6.1674742028117180e-03</internalNodes>
      <leafValues>
        -2.9909935593605042e-01 5.5715268850326538e-01</leafValues></_>
    <_>
      <internalNodes>
        0 -1 7738580 1.3986483099870384e-04</internalNodes>
      <leafValues>
        -2.6684165000915527e-01 6.9228875637054443e-01</leafValues></_>
    <_>
      <internalNodes>
        0 -1 2442165 9.0957991778850555e-04</internalNodes>
      <leafValues>
        -2.6541805267333984e-01 6.0880053043365479e-01</leafValues></_></weakClassifiers></stage9>
</opencv_storage>
