<?xml version="1.0"?>
<opencv_storage>
<stage3>
  <maxWeakCount>12</maxWeakCount>
  <stageThreshold>-1.1160007715225220e+00</stageThreshold>
  <weakClassifiers>
    <_>
      <internalNodes>
        0 -1 4192316 -4.0434831753373146e-03</internalNodes>
      <leafValues>
        5.9016394615173340e-01 -2.8205129504203796e-01</leafValues></_>
    <_>
      <internalNodes>
        0 -1 5146385 1.4856319467071444e-04</internalNodes>
      <leafValues>
        2.9631802439689636e-01 -6.9611567258834839e-01</leafValues></_>
    <_>
      <internalNodes>
        0 -1 1642183 -1.6746278852224350e-02</internalNodes>
      <leafValues>
        7.2784614562988281e-01 -2.6290419697761536e-01</leafValues></_>
    <_>
      <internalNodes>
        0 -1 7541379 5.8771134354174137e-03</internalNodes>
      <leafValues>
        -2.9865884780883789e-01 5.5848538875579834e-01</leafValues></_>
    <_>
      <internalNodes>
        0 -1 7488286 1.8610146071296185e-04</internalNodes>
      <leafValues>
        -2.6515147089958191e-01 6.5584343671798706e-01</leafValues></_>
    <_>
      <internalNodes>
        0 -1 5022700 2.4077883153950097e-06</internalNodes>
      <leafValues>
        -3.3532580733299255e-01 4.9632522463798523e-01</leafValues></_>
    <_>
      <internalNodes>
        0 -1 4130984 4.3558562174439430e-04</internalNodes>
      <leafValues>
        -2.5390434265136719e-01 5.6950277090072632e-01</leafValues></_>
    <_>
      <internalNodes>
        0 -1 5780518 -7.1360683068633080e-03</internalNodes>
      <leafValues>
        7.0114827156066895e-01 -2.1762286126613617e-01</leafValues></_>
    <_>
      <internalNodes>
        0 -1 4697028 -4.0471108513884246e-04</internalNodes>
      <leafValues>
        -4.5281794667243958e-01 3.4762042760848999e-01</leafValues></_>
    <_>
      <internalNodes>
        0 -1 7284954 -2.1528700017370284e-04</internalNodes>
      <leafValues>
        6.7256623506546021e-01 -2.4964258074760437e-01</leafValues></_>
    <_>
      <internalNodes>
        0 -1 5526939 1.3564726337790489e-02</internalNodes>
      <leafValues>
        -1.3210244476795197e-01 9.6772384643554688e-01</leafValues></_>
    <_>
      <internalNodes>
        0 -1 739700 -6.7751728929579258e-03</internalNodes>
      <leafValues>
        5.4452824592590332e-01 -2.6335185766220093e-01</leafValues></_></weakClassifiers></stage3>
</opencv_storage>
