<?xml version="1.0"?>
<opencv_storage>
<stage11>
  <maxWeakCount>7</maxWeakCount>
  <stageThreshold>-8.3321779966354370e-01</stageThreshold>
  <weakClassifiers>
    <_>
      <internalNodes>
        0 -1 4812814 -2.8595412732101977e-04</internalNodes>
      <leafValues>
        -6.2597399950027466e-01 5.2757203578948975e-01</leafValues></_>
    <_>
      <internalNodes>
        0 -1 3996634 4.9011479131877422e-04</internalNodes>
      <leafValues>
        -4.2701649665832520e-01 6.3503307104110718e-01</leafValues></_>
    <_>
      <internalNodes>
        0 -1 6802649 1.2369230389595032e-03</internalNodes>
      <leafValues>
        -2.9038941860198975e-01 7.9082500934600830e-01</leafValues></_>
    <_>
      <internalNodes>
        0 -1 138798 1.9364162581041455e-03</internalNodes>
      <leafValues>
        4.1942426562309265e-01 -5.8611589670181274e-01</leafValues></_>
    <_>
      <internalNodes>
        0 -1 7625991 3.3650940749794245e-03</internalNodes>
      <leafValues>
        -3.1175819039344788e-01 7.7654874324798584e-01</leafValues></_>
    <_>
      <internalNodes>
        0 -1 7632466 7.7351694926619530e-04</internalNodes>
      <leafValues>
        -3.1065607070922852e-01 7.6716065406799316e-01</leafValues></_>
    <_>
      <internalNodes>
        0 -1 6407633 -1.3152707833796740e-03</internalNodes>
      <leafValues>
        7.1315222978591919e-01 -3.1046670675277710e-01</leafValues></_></weakClassifiers></stage11>
</opencv_storage>
