<?xml version="1.0"?>
<opencv_storage>
<stage2>
  <maxWeakCount>12</maxWeakCount>
  <stageThreshold>-9.6499645709991455e-01</stageThreshold>
  <weakClassifiers>
    <_>
      <internalNodes>
        0 -1 5009836 -1.5481655485928059e-02</internalNodes>
      <leafValues>
        7.7249997854232788e-01 -1.0727272927761078e-01</leafValues></_>
    <_>
      <internalNodes>
        0 -1 49 -1.3589352602139115e-04</internalNodes>
      <leafValues>
        -6.5237891674041748e-01 2.7661415934562683e-01</leafValues></_>
    <_>
      <internalNodes>
        0 -1 5123259 -1.4172174036502838e-02</internalNodes>
      <leafValues>
        3.2140925526618958e-01 -4.4939383864402771e-01</leafValues></_>
    <_>
      <internalNodes>
        0 -1 5283518 2.4009808839764446e-04</internalNodes>
      <leafValues>
        -3.1951102614402771e-01 4.6184247732162476e-01</leafValues></_>
    <_>
      <internalNodes>
        0 -1 30963 8.5495854727923870e-04</internalNodes>
      <leafValues>
        -3.9109382033348083e-01 4.1113212704658508e-01</leafValues></_>
    <_>
      <internalNodes>
        0 -1 6640954 -7.7108955010771751e-03</internalNodes>
      <leafValues>
        7.4328166246414185e-01 -1.7717294394969940e-01</leafValues></_>
    <_>
      <internalNodes>
        0 -1 4186218 2.2518917918205261e-02</internalNodes>
      <leafValues>
        1.5528571605682373e-01 -9.7543060779571533e-01</leafValues></_>
    <_>
      <internalNodes>
        0 -1 7765925 1.2624988448806107e-04</internalNodes>
      <leafValues>
        -2.7841451764106750e-01 5.7957452535629272e-01</leafValues></_>
    <_>
      <internalNodes>
        0 -1 5504282 -7.7660381793975830e-04</internalNodes>
      <leafValues>
        6.4123946428298950e-01 -2.1181032061576843e-01</leafValues></_>
    <_>
      <internalNodes>
        0 -1 751388 5.2078249864280224e-03</internalNodes>
      <leafValues>
        -1.4757882058620453e-01 7.7804136276245117e-01</leafValues></_>
    <_>
      <internalNodes>
        0 -1 5667837 4.7855265438556671e-04</internalNodes>
      <leafValues>
        1.7621211707592010e-01 -9.2390173673629761e-01</leafValues></_>
    <_>
      <internalNodes>
        0 -1 6340293 -1.5811503399163485e-03</internalNodes>
      <leafValues>
        6.1729711294174194e-01 -2.6166352629661560e-01</leafValues></_></weakClassifiers></stage2>
</opencv_storage>
