<?xml version="1.0"?>
<opencv_storage>
<stage16>
  <maxWeakCount>8</maxWeakCount>
  <stageThreshold>-1.3873496055603027e+00</stageThreshold>
  <weakClassifiers>
    <_>
      <internalNodes>
        0 -1 5558937 -1.1412341846153140e-03</internalNodes>
      <leafValues>
        -8.3492064476013184e-01 5.1595330238342285e-01</leafValues></_>
    <_>
      <internalNodes>
        0 -1 7487618 -3.5919362562708557e-04</internalNodes>
      <leafValues>
        5.7247567176818848e-01 -4.3492066860198975e-01</leafValues></_>
    <_>
      <internalNodes>
        0 -1 4380106 8.2110607763752341e-04</internalNodes>
      <leafValues>
        3.5359013080596924e-01 -7.5597196817398071e-01</leafValues></_>
    <_>
      <internalNodes>
        0 -1 7626686 -3.3645890653133392e-03</internalNodes>
      <leafValues>
        7.8867018222808838e-01 -3.5631281137466431e-01</leafValues></_>
    <_>
      <internalNodes>
        0 -1 4552364 -2.5876695417537121e-06</internalNodes>
      <leafValues>
        4.6738278865814209e-01 -4.2495816946029663e-01</leafValues></_>
    <_>
      <internalNodes>
        0 -1 6160588 8.0506666563451290e-05</internalNodes>
      <leafValues>
        -2.8794255852699280e-01 7.0032423734664917e-01</leafValues></_>
    <_>
      <internalNodes>
        0 -1 86130 -2.1533735096454620e-02</internalNodes>
      <leafValues>
        7.3709958791732788e-01 -2.5825735926628113e-01</leafValues></_>
    <_>
      <internalNodes>
        0 -1 3543226 2.6940487325191498e-02</internalNodes>
      <leafValues>
        -3.9233580231666565e-01 5.3752589225769043e-01</leafValues></_></weakClassifiers></stage16>
</opencv_storage>
