<?xml version="1.0"?>
<opencv_storage>
<stage18>
  <maxWeakCount>8</maxWeakCount>
  <stageThreshold>-9.8548829555511475e-01</stageThreshold>
  <weakClassifiers>
    <_>
      <internalNodes>
        0 -1 5980908 -4.5922311983304098e-05</internalNodes>
      <leafValues>
        6.5264290571212769e-01 -3.0460622906684875e-01</leafValues></_>
    <_>
      <internalNodes>
        0 -1 23863 -3.5916868364438415e-04</internalNodes>
      <leafValues>
        -6.6955369710922241e-01 3.9711615443229675e-01</leafValues></_>
    <_>
      <internalNodes>
        0 -1 7255467 1.8278099596500397e-02</internalNodes>
      <leafValues>
        -3.9074650406837463e-01 6.5491247177124023e-01</leafValues></_>
    <_>
      <internalNodes>
        0 -1 5492844 1.9403254555072635e-05</internalNodes>
      <leafValues>
        -3.1340017914772034e-01 6.8389445543289185e-01</leafValues></_>
    <_>
      <internalNodes>
        0 -1 7757746 5.2712704928126186e-05</internalNodes>
      <leafValues>
        -2.3690515756607056e-01 8.6904156208038330e-01</leafValues></_>
    <_>
      <internalNodes>
        0 -1 6160578 1.9438943127170205e-05</internalNodes>
      <leafValues>
        -2.1742597222328186e-01 8.3117747306823730e-01</leafValues></_>
    <_>
      <internalNodes>
        0 -1 7128703 -2.7346516162651824e-06</internalNodes>
      <leafValues>
        4.9918720126152039e-01 -3.8248667120933533e-01</leafValues></_>
    <_>
      <internalNodes>
        0 -1 5324219 -3.9413897320628166e-04</internalNodes>
      <leafValues>
        6.8136233091354370e-01 -3.0928692221641541e-01</leafValues></_></weakClassifiers></stage18>
</opencv_storage>
