<?xml version="1.0"?>
<opencv_storage>
<stage1>
  <maxWeakCount>12</maxWeakCount>
  <stageThreshold>-1.0367856025695801e+00</stageThreshold>
  <weakClassifiers>
    <_>
      <internalNodes>
        0 -1 2574547 3.5651534795761108e-02</internalNodes>
      <leafValues>
        4.3089431524276733e-01 -7.4089068174362183e-01</leafValues></_>
    <_>
      <internalNodes>
        0 -1 5737247 -1.6533024609088898e-03</internalNodes>
      <leafValues>
        5.3420424461364746e-01 -3.6141288280487061e-01</leafValues></_>
    <_>
      <internalNodes>
        0 -1 5526363 -6.3013378530740738e-04</internalNodes>
      <leafValues>
        8.2965648174285889e-01 -1.3347169756889343e-01</leafValues></_>
    <_>
      <internalNodes>
        0 -1 5176453 1.6703354776836932e-04</internalNodes>
      <leafValues>
        -3.7127661705017090e-01 4.6337017416954041e-01</leafValues></_>
    <_>
      <internalNodes>
        0 -1 5364007 2.0109670003876090e-04</internalNodes>
      <leafValues>
        2.4244976043701172e-01 -7.6822280883789062e-01</leafValues></_>
    <_>
      <internalNodes>
        0 -1 2111355 1.2783511774614453e-03</internalNodes>
      <leafValues>
        -3.0022352933883667e-01 6.0781931877136230e-01</leafValues></_>
    <_>
      <internalNodes>
        0 -1 5561985 1.6090159770101309e-03</internalNodes>
      <leafValues>
        2.1317702531814575e-01 -8.7964946031570435e-01</leafValues></_>
    <_>
      <internalNodes>
        0 -1 6874788 1.8731801537796855e-04</internalNodes>
      <leafValues>
        -3.3162245154380798e-01 6.1210721731185913e-01</leafValues></_>
    <_>
      <internalNodes>
        0 -1 4956660 4.0634715696796775e-04</internalNodes>
      <leafValues>
        -3.9476528763771057e-01 3.8994029164314270e-01</leafValues></_>
    <_>
      <internalNodes>
        0 -1 2974223 -9.8472014069557190e-03</internalNodes>
      <leafValues>
        7.5400084257125854e-01 -1.9032034277915955e-01</leafValues></_>
    <_>
      <internalNodes>
        0 -1 4231765 2.5657226797193289e-04</internalNodes>
      <leafValues>
        -1.9037270545959473e-01 7.6611834764480591e-01</leafValues></_>
    <_>
      <internalNodes>
        0 -1 5449298 -1.7975058406591415e-02</internalNodes>
      <leafValues>
        5.2618461847305298e-01 -2.7132108807563782e-01</leafValues></_></weakClassifiers></stage1>
</opencv_storage>
