<?xml version="1.0"?>
<opencv_storage>
<stage15>
  <maxWeakCount>8</maxWeakCount>
  <stageThreshold>-8.8758951425552368e-01</stageThreshold>
  <weakClassifiers>
    <_>
      <internalNodes>
        0 -1 5231846 2.7775501366704702e-03</internalNodes>
      <leafValues>
        5.3550541400909424e-01 -5.9801489114761353e-01</leafValues></_>
    <_>
      <internalNodes>
        0 -1 4298022 4.0891602635383606e-02</internalNodes>
      <leafValues>
        2.5225353240966797e-01 -9.3594646453857422e-01</leafValues></_>
    <_>
      <internalNodes>
        0 -1 1005242 1.0782429017126560e-03</internalNodes>
      <leafValues>
        -2.9528209567070007e-01 7.5054860115051270e-01</leafValues></_>
    <_>
      <internalNodes>
        0 -1 5355215 5.2420571446418762e-03</internalNodes>
      <leafValues>
        2.2376129031181335e-01 -8.4328818321228027e-01</leafValues></_>
    <_>
      <internalNodes>
        0 -1 6459166 -3.0353321926668286e-04</internalNodes>
      <leafValues>
        6.7711156606674194e-01 -2.8652942180633545e-01</leafValues></_>
    <_>
      <internalNodes>
        0 -1 5638304 2.3899639490991831e-03</internalNodes>
      <leafValues>
        -2.7142545580863953e-01 7.0429605245590210e-01</leafValues></_>
    <_>
      <internalNodes>
        0 -1 4243962 -4.1743093170225620e-03</internalNodes>
      <leafValues>
        7.6726561784744263e-01 -2.4386253952980042e-01</leafValues></_>
    <_>
      <internalNodes>
        0 -1 5024421 -3.7295664660632610e-03</internalNodes>
      <leafValues>
        4.3491858243942261e-01 -4.4090139865875244e-01</leafValues></_></weakClassifiers></stage15>
</opencv_storage>
